
\data\
ngram 1=221

\1-grams:
-0.4771213	</s>
-2.516535	<eps>
-99	<s>
-2.516535	a1
-2.516535	a2
-2.516535	a3
-2.516535	a4
-2.516535	a5
-2.516535	aa
-2.516535	ai1
-2.516535	ai2
-2.516535	ai3
-2.516535	ai4
-2.516535	ai5
-2.516535	an1
-2.516535	an2
-2.516535	an3
-2.516535	an4
-2.516535	an5
-2.516535	ang1
-2.516535	ang2
-2.516535	ang3
-2.516535	ang4
-2.516535	ang5
-2.516535	ao1
-2.516535	ao2
-2.516535	ao3
-2.516535	ao4
-2.516535	ao5
-2.516535	b
-2.516535	c
-2.516535	ch
-2.516535	d
-2.516535	e1
-2.516535	e2
-2.516535	e3
-2.516535	e4
-2.516535	e5
-2.516535	ee
-2.516535	ei1
-2.516535	ei2
-2.516535	ei3
-2.516535	ei4
-2.516535	ei5
-2.516535	en1
-2.516535	en2
-2.516535	en3
-2.516535	en4
-2.516535	en5
-2.516535	eng1
-2.516535	eng2
-2.516535	eng3
-2.516535	eng4
-2.516535	eng5
-2.516535	er2
-2.516535	er3
-2.516535	er4
-2.516535	er5
-2.516535	f
-2.516535	g
-2.516535	h
-2.516535	i1
-2.516535	i2
-2.516535	i3
-2.516535	i4
-2.516535	i5
-2.516535	ia1
-2.516535	ia2
-2.516535	ia3
-2.516535	ia4
-2.516535	ia5
-2.516535	ian1
-2.516535	ian2
-2.516535	ian3
-2.516535	ian4
-2.516535	ian5
-2.516535	iang1
-2.516535	iang2
-2.516535	iang3
-2.516535	iang4
-2.516535	iang5
-2.516535	iao1
-2.516535	iao2
-2.516535	iao3
-2.516535	iao4
-2.516535	iao5
-2.516535	ie1
-2.516535	ie2
-2.516535	ie3
-2.516535	ie4
-2.516535	ie5
-2.516535	ii
-2.516535	in1
-2.516535	in2
-2.516535	in3
-2.516535	in4
-2.516535	in5
-2.516535	ing1
-2.516535	ing2
-2.516535	ing3
-2.516535	ing4
-2.516535	ing5
-2.516535	iong1
-2.516535	iong2
-2.516535	iong3
-2.516535	iong4
-2.516535	iong5
-2.516535	iu1
-2.516535	iu2
-2.516535	iu3
-2.516535	iu4
-2.516535	iu5
-2.516535	ix1
-2.516535	ix2
-2.516535	ix3
-2.516535	ix4
-2.516535	ix5
-2.516535	iy1
-2.516535	iy2
-2.516535	iy3
-2.516535	iy4
-2.516535	iy5
-2.516535	iz4
-2.516535	iz5
-2.516535	j
-2.516535	k
-2.516535	l
-2.516535	m
-2.516535	n
-2.516535	o1
-2.516535	o2
-2.516535	o3
-2.516535	o4
-2.516535	o5
-2.516535	ong1
-2.516535	ong2
-2.516535	ong3
-2.516535	ong4
-2.516535	ong5
-2.516535	oo
-2.516535	ou1
-2.516535	ou2
-2.516535	ou3
-2.516535	ou4
-2.516535	ou5
-2.516535	p
-2.516535	q
-2.516535	r
-2.516535	s
-2.516535	sh
-2.516535	sil
-2.516535	t
-2.516535	u1
-2.516535	u2
-2.516535	u3
-2.516535	u4
-2.516535	u5
-2.516535	ua1
-2.516535	ua2
-2.516535	ua3
-2.516535	ua4
-2.516535	ua5
-2.516535	uai1
-2.516535	uai2
-2.516535	uai3
-2.516535	uai4
-2.516535	uai5
-2.516535	uan1
-2.516535	uan2
-2.516535	uan3
-2.516535	uan4
-2.516535	uan5
-2.516535	uang1
-2.516535	uang2
-2.516535	uang3
-2.516535	uang4
-2.516535	uang5
-2.516535	ueng1
-2.516535	ueng3
-2.516535	ueng4
-2.516535	ueng5
-2.516535	ui1
-2.516535	ui2
-2.516535	ui3
-2.516535	ui4
-2.516535	ui5
-2.516535	un1
-2.516535	un2
-2.516535	un3
-2.516535	un4
-2.516535	un5
-2.516535	uo1
-2.516535	uo2
-2.516535	uo3
-2.516535	uo4
-2.516535	uo5
-2.516535	uu
-2.516535	v1
-2.516535	v2
-2.516535	v3
-2.516535	v4
-2.516535	v5
-2.516535	van1
-2.516535	van2
-2.516535	van3
-2.516535	van4
-2.516535	van5
-2.516535	ve1
-2.516535	ve2
-2.516535	ve3
-2.516535	ve4
-2.516535	ve5
-2.516535	vn1
-2.516535	vn2
-2.516535	vn3
-2.516535	vn4
-2.516535	vn5
-2.516535	vv
-2.516535	x
-2.516535	z
-2.516535	zh

\end\
