
\data\
ngram 1=74

\1-grams:
-0.30103	</s>
-99	<s>
-2.158362	SIL
-2.158362	七层模型
-2.158362	主机
-2.158362	交换机
-2.158362	会话层
-2.158362	传输层
-2.158362	全双工
-2.158362	冲突域
-2.158362	分组交换
-2.158362	半双工
-2.158362	协议
-2.158362	协议数据单元
-2.158362	单工
-2.158362	参考模型
-2.158362	可靠性
-2.158362	吞吐量
-2.158362	四层模型
-2.158362	宽带城域网
-2.158362	对等实体
-2.158362	局域网
-2.158362	带宽
-2.158362	帧
-2.158362	广域网
-2.158362	广播域
-2.158362	应用层
-2.158362	延迟带宽积
-2.158362	往返时间
-2.158362	总线型
-2.158362	报文
-2.158362	报文交换
-2.158362	拓扑结构
-2.158362	接入层
-2.158362	接口
-2.158362	数据传输阶段
-2.158362	数据封装
-2.158362	数据报
-2.158362	数据链路层
-2.158362	时延
-2.158362	时延带宽积
-2.158362	星型
-2.158362	有连接不可靠
-2.158362	服务
-2.158362	服务器
-2.158362	树型
-2.158362	核心交换层
-2.158362	正确
-2.158362	比特序列
-2.158362	汇聚层
-2.158362	物理层
-2.158362	环型
-2.158362	电信通信网
-2.158362	电视通信网
-2.158362	电路交换
-2.158362	端到端服务
-2.158362	端口号
-2.158362	维护
-2.158362	网型
-2.158362	网桥
-2.158362	网状结构
-2.158362	网络
-2.158362	网络体系结构
-2.158362	网络层
-2.158362	虚电路
-2.158362	虚电路建立阶段
-2.158362	虚电路拆除阶段
-2.158362	表示层
-2.158362	计算机网络
-2.158362	路由器
-2.158362	连接
-2.158362	通信子网
-2.158362	释放
-2.158362	错误

\end\
