
\data\
ngram 1=73

\1-grams:
-0.3127729	</s>
-99	<s>
-2.14021	七层模型
-2.14021	主机
-2.14021	交换机
-2.14021	会话层
-2.14021	传输层
-2.14021	全双工
-2.14021	冲突域
-2.14021	分组交换
-2.14021	半双工
-2.14021	协议
-2.14021	协议数据单元
-2.14021	单工
-2.14021	参考模型
-2.14021	可靠性
-2.14021	吞吐量
-2.14021	四层模型
-2.14021	宽带城域网
-2.14021	对等实体
-2.14021	局域网
-2.14021	带宽
-2.14021	帧
-2.14021	广域网
-2.14021	广播域
-2.14021	应用层
-2.163692	延迟带宽积
-2.163692	往返时间
-2.14021	总线型
-2.14021	报文
-2.14021	报文交换
-2.14021	拓扑结构
-2.14021	接入层
-2.14021	接口
-2.14021	数据传输阶段
-2.14021	数据封装
-2.14021	数据报
-2.14021	数据链路层
-2.14021	时延
-2.14021	时延带宽积
-2.14021	星型
-2.14021	有连接不可靠
-2.14021	服务
-2.14021	服务器
-2.14021	树型
-2.14021	核心交换层
-2.14021	正确
-2.14021	比特序列
-2.14021	汇聚层
-2.14021	物理层
-2.14021	环型
-2.14021	电信通信网
-2.14021	电视通信网
-2.14021	电路交换
-2.14021	端到端服务
-2.14021	端口号
-2.14021	维护
-2.14021	网型
-2.14021	网桥
-2.14021	网状结构
-2.14021	网络
-2.14021	网络体系结构
-2.14021	网络层
-2.14021	虚电路
-2.14021	虚电路建立阶段
-2.14021	虚电路拆除阶段
-2.14021	表示层
-2.14021	计算机网络
-2.14021	路由器
-2.14021	连接
-2.14021	通信子网
-2.14021	释放
-2.14021	错误

\end\
